0.171506561174719,-0.326801102896764,-0.534331844370274,-0.0888508167998518,0.2901447557262,0.240877609988285,0.160982597355997,0.079050253702243,-0.0103794766011057,-0.0121137460695124,0.288229784933861,-0.175090681387028,-0.292384715435689,0.447154734152102,0.0492821293969197,0.388008265132984,0.142565715288579,-0.470507893579744,-0.184531046416442,0.512286780719261,-0.11446391638237,-0.262404529375599,-0.176038789449302,-0.0734298511786298,-0.188551998010768,0.0251070905001335,-0.179426927740412,0.431239403529044,0.289391845114815,0.00138288256810382,0.26304391164227,0.00969719619102483,0.322128075496485,-0.51856256389055,-0.067022673636626,-0.164416310494614,-0.136377940990203,-0.142257844749122,-0.0942557595849558,-0.207836677208342,-0.072468663182739,-0.181003237423272,-0.312991237467739,0.064912807408334,-0.0418439196683973,-0.0596658465109559,0.0176494690535485,-0.403672885361671,0.369997638633987,-0.293099718231362,0.323138201646831,0.19434196234553,-0.525688920763143,0.301160054344338,0.340848605315486,-0.204616305362559,0.194988584197254,-0.43717339362134,-0.276741092670673,0.0621305824631217,-0.321462015138197,0.173725890701616,0.342959350258472,0.512790165452289,-0.235346681532942,-0.261034318535434,-0.683061578613993,-0.314933966714502,-0.241075766791232,0.134334733574456,-0.310771949287298,0.102508925986573,0.651793895828091,0.317601268587273,-0.731074805445869,0.276657214585726,0.603108308589095,-0.129698083610873,0.325433120694031,-0.653784347188455,0.0201057675858346,0.185266669444656,
